<?xml version="1.0"?>
<opencv_storage>
<cascade>
  <stageType>BOOST</stageType>
  <featureType>HAAR</featureType>
  <height>40</height>
  <width>40</width>
  <stageParams>
    <boostType>GAB</boostType>
    <minHitRate>9.9500000476837158e-01</minHitRate>
    <maxFalseAlarm>5.0000000000000000e-01</maxFalseAlarm>
    <weightTrimRate>9.4999999999999996e-01</weightTrimRate>
    <maxDepth>1</maxDepth>
    <maxWeakCount>100</maxWeakCount></stageParams>
  <featureParams>
    <maxCatCount>0</maxCatCount>
    <featSize>1</featSize>
    <mode>BASIC</mode></featureParams>
  <stageNum>3</stageNum>
  <stages>
    <!-- stage 0 -->
    <_>
      <maxWeakCount>2</maxWeakCount>
      <stageThreshold>-1.5431278385221958e-02</stageThreshold>
      <weakClassifiers>
        <_>
          <internalNodes>
            0 -1 4 1.3130321167409420e-03</internalNodes>
          <leafValues>
            -9.8376625776290894e-01 9.9748742580413818e-01</leafValues></_>
        <_>
          <internalNodes>
            0 -1 5 -6.1113955453038216e-03</internalNodes>
          <leafValues>
            -9.6163767576217651e-01 9.6833497285842896e-01</leafValues></_></weakClassifiers></_>
    <!-- stage 1 -->
    <_>
      <maxWeakCount>2</maxWeakCount>
      <stageThreshold>-7.0639103651046753e-02</stageThreshold>
      <weakClassifiers>
        <_>
          <internalNodes>
            0 -1 2 1.5001795254647732e-03</internalNodes>
          <leafValues>
            -9.7029703855514526e-01 9.6277916431427002e-01</leafValues></_>
        <_>
          <internalNodes>
            0 -1 1 -8.7966304272413254e-03</internalNodes>
          <leafValues>
            8.9965790510177612e-01 -9.6676373481750488e-01</leafValues></_></weakClassifiers></_>
    <!-- stage 2 -->
    <_>
      <maxWeakCount>2</maxWeakCount>
      <stageThreshold>-9.9775694310665131e-02</stageThreshold>
      <weakClassifiers>
        <_>
          <internalNodes>
            0 -1 0 -2.8711538761854172e-03</internalNodes>
          <leafValues>
            -9.2307692766189575e-01 9.6954315900802612e-01</leafValues></_>
        <_>
          <internalNodes>
            0 -1 3 2.2948104888200760e-03</internalNodes>
          <leafValues>
            -9.7888427972793579e-01 8.2330125570297241e-01</leafValues></_></weakClassifiers></_></stages>
  <features>
    <_>
      <rects>
        <_>
          14 19 6 2 -1.</_>
        <_>
          16 19 2 2 2.</_></rects>
      <tilted>0</tilted></_>
    <_>
      <rects>
        <_>
          16 15 3 16 -1.</_>
        <_>
          16 23 3 8 2.</_></rects>
      <tilted>0</tilted></_>
    <_>
      <rects>
        <_>
          17 18 2 10 -1.</_>
        <_>
          17 18 1 5 2.</_>
        <_>
          18 23 1 5 2.</_></rects>
      <tilted>0</tilted></_>
    <_>
      <rects>
        <_>
          18 19 4 2 -1.</_>
        <_>
          20 19 2 2 2.</_></rects>
      <tilted>0</tilted></_>
    <_>
      <rects>
        <_>
          20 19 2 2 -1.</_>
        <_>
          21 19 1 2 2.</_></rects>
      <tilted>0</tilted></_>
    <_>
      <rects>
        <_>
          21 10 1 21 -1.</_>
        <_>
          21 17 1 7 2.</_></rects>
      <tilted>0</tilted></_></features></cascade>
</opencv_storage>
